// Generated automatically. Do not edit.
// Dumped from /home/tylee/GoogleDrive/UCI/02_DRG/ISLPED2020/model/test_set_paper/model.h5
#include <stdint.h>

#ifndef WEIGHTS_1_H
#define WEIGHTS_1_GPIO_H

#define WEIGHTS_1_DIM0 64
#define WEIGHTS_1_DIM1 32
static const float weights_1[64][32] = {
	{-0.5110324025154114, 1.2315024137496948, -0.4926944375038147, 0.025206906720995903, 0.10603631287813187, 1.2890220880508423, -0.09615939855575562, -0.0454610213637352, 0.07688760757446289, -0.1895037293434143, -0.06854128837585449, -0.2098674476146698, -0.44056108593940735, 0.1991630494594574, 0.03338940441608429, -2.0346598625183105, -0.9241141080856323, 0.0840964987874031, 0.07419756799936295, -0.5044825673103333, 0.13178479671478271, 0.10347800701856613, 0.5830133557319641, -0.43234458565711975, 0.024833323433995247, 0.6399173736572266, -0.20598170161247253, 0.8524032831192017, 0.040003180503845215, 0.1323217898607254, -0.09786385297775269, -0.5719220638275146, },
	{-0.4176165461540222, 0.706382691860199, -0.17995363473892212, -0.06379242241382599, 0.1479942351579666, 0.43765494227409363, -0.050365447998046875, -0.04485959932208061, -0.20876473188400269, -0.03943699598312378, -0.24840974807739258, 0.15923923254013062, -0.15452924370765686, -0.18317347764968872, -0.06840608268976212, -0.7914354205131531, -0.6487553715705872, 0.023492882028222084, -0.23206625878810883, -0.18869292736053467, 0.17716863751411438, -0.0767945945262909, 0.06948058307170868, 0.026505036279559135, -0.20828138291835785, 0.7938076257705688, -0.005105201620608568, 0.4752109944820404, 0.2534862756729126, -0.4033997356891632, 0.08540540933609009, 0.1211933121085167, },
	{-0.45179736614227295, 0.6249805688858032, -0.30316317081451416, 0.04489012435078621, 0.18320360779762268, 0.18819096684455872, 0.0004744529724121094, -0.20524486899375916, -0.10886430740356445, -0.2483372688293457, -0.1671198010444641, -0.03147914633154869, -0.3105117380619049, -0.13942620158195496, 0.10277678817510605, -0.4359450936317444, 0.10888225585222244, 0.20285353064537048, -0.3209138512611389, 0.23888026177883148, 0.3320827782154083, -0.07214412838220596, 0.23519916832447052, 0.2520620822906494, -0.11561977118253708, 0.6931232810020447, 0.41991013288497925, 0.5296655297279358, -0.18442751467227936, -0.2936347424983978, 0.15535908937454224, 0.29435205459594727, },
	{-0.04971988871693611, 0.32014402747154236, -0.15611112117767334, -0.033421579748392105, -0.08545665442943573, 0.18551917374134064, 0.10465651750564575, -0.12325133383274078, 0.031230509281158447, 0.11967742443084717, -0.23121309280395508, -0.22203338146209717, -0.06329761445522308, -0.18742768466472626, -0.24704666435718536, -0.24463477730751038, 0.05817795917391777, 0.14187732338905334, 0.12424077093601227, 0.0011019258527085185, 0.48041248321533203, -0.39156782627105713, -0.3194381594657898, 0.41122967004776, -0.2733740210533142, 0.8369278311729431, 0.32463157176971436, 0.6412554979324341, 0.19297559559345245, -0.34362006187438965, -0.1424800157546997, 0.13501335680484772, },
	{0.11528514325618744, 0.4191860854625702, -0.13109254837036133, 0.2595784366130829, -0.15264151990413666, -0.09573210775852203, -0.17999714612960815, -0.22091783583164215, -0.16722649335861206, -0.2432469129562378, -0.2055913209915161, -0.13823986053466797, -0.18678663671016693, -0.08833280205726624, -0.08873727917671204, -0.14602695405483246, 0.5350074768066406, -0.06452161073684692, -0.204594224691391, -0.0428212508559227, 0.20311415195465088, -0.1350734829902649, -0.42353805899620056, 0.33077460527420044, 0.029394403100013733, 0.9446811676025391, 0.5950987339019775, 0.7840782999992371, -0.14665843546390533, -0.31546494364738464, 0.09409230947494507, 0.05812276527285576, },
	{0.08517139405012131, 0.2730533182621002, 0.07853759080171585, 0.3049275279045105, 0.0609978511929512, 0.40286609530448914, 0.11333811283111572, 0.06986315548419952, -0.1855122447013855, 0.07292371988296509, -0.21874457597732544, -0.0204489566385746, -0.4811384081840515, 0.00562438927590847, -0.17630226910114288, 0.0029144668951630592, 0.4513900578022003, 0.1921185404062271, -0.14604897797107697, -0.16665507853031158, 0.2604908347129822, -0.12828701734542847, -0.6403319239616394, -0.11054793000221252, 0.3725072145462036, 0.7972122430801392, 0.6470252871513367, 0.7421979904174805, 0.13101284205913544, -0.48011308908462524, -0.16573667526245117, 0.23134425282478333, },
	{-0.053175631910562515, 0.38911953568458557, 0.04421830177307129, 0.3071732819080353, -0.1043759137392044, 0.2593997120857239, -0.1911512017250061, -0.07882750034332275, 0.03850698471069336, 0.1515578031539917, -0.06925570964813232, 0.09055136144161224, 0.06462304294109344, -0.26637884974479675, 0.037038445472717285, -0.3075708746910095, 0.12421298772096634, -0.052846070379018784, -0.0529613234102726, -0.10150668770074844, 0.3579041063785553, -0.2973617613315582, -0.37403586506843567, -0.20464910566806793, 0.6922317147254944, 0.8195099234580994, 0.5120730996131897, 0.3056694269180298, 0.168240025639534, -0.925643801689148, 0.03190481662750244, -0.08716842532157898, },
	{0.09688952565193176, 0.48222342133522034, -0.004147659987211227, 0.554010808467865, 0.21324053406715393, 0.3163163959980011, -0.2294345498085022, -0.1520506888628006, 0.10811960697174072, 0.04794180393218994, -0.08563446998596191, -0.061476923525333405, 0.003324219724163413, 0.254081666469574, -0.0012619639746844769, -0.13945598900318146, 0.19369150698184967, -0.054853908717632294, -0.28114834427833557, -0.10828497260808945, 0.3071613609790802, -0.22476539015769958, -0.32831233739852905, 0.018862634897232056, 0.3596388101577759, 0.20773397386074066, 0.2908216118812561, 0.1226760596036911, 0.06311000138521194, -0.5774146914482117, -0.06602698564529419, -0.2355041205883026, },
	{-0.012604243122041225, 0.15930263698101044, -0.051854200661182404, 0.4898349642753601, 0.09913726150989532, -0.22447186708450317, -0.1053737998008728, 0.32011184096336365, -0.005984067916870117, -0.06032842397689819, 0.17355895042419434, 0.20249255001544952, -0.05474623292684555, -0.012778743170201778, 0.14689746499061584, -0.40069225430488586, 0.19901056587696075, -0.0493074394762516, -0.4359257221221924, 0.3074827790260315, 0.2677460312843323, -0.002945073414593935, -0.08586543798446655, -0.19022594392299652, 0.5258646011352539, 0.09810329973697662, 0.397125244140625, 0.5004928708076477, -0.08947569876909256, -0.6056164503097534, -0.07080388069152832, 0.1362966001033783, },
	{0.14571550488471985, 0.5704604983329773, 0.4754185676574707, 0.35001757740974426, 0.15638567507266998, -0.18396438658237457, 0.09922152757644653, 0.20329992473125458, -0.15114939212799072, -0.09152108430862427, -0.24662864208221436, 0.2367255538702011, 0.37029778957366943, 0.22974717617034912, -0.3048126995563507, -0.1584802269935608, 0.11342928558588028, -0.07557133585214615, -0.3087589740753174, 0.29411134123802185, 0.05898991599678993, 0.07688632607460022, -0.1434512734413147, -0.21771731972694397, 0.24532154202461243, -0.32541364431381226, 0.38129115104675293, 0.3482324481010437, -0.44062238931655884, -0.27785879373550415, 0.1437128186225891, -0.08463305979967117, },
	{0.17173123359680176, 0.5933989882469177, 0.2210736870765686, 0.20732641220092773, -0.21703727543354034, -0.27718108892440796, 0.013963103294372559, 0.08390885591506958, -0.11352753639221191, -0.16716909408569336, -0.23177272081375122, 0.20349115133285522, 0.03097364492714405, -0.19677478075027466, -0.4828437864780426, -0.24852783977985382, 0.35220083594322205, 0.159951314330101, -0.19789375364780426, 0.5748313069343567, 0.0867430567741394, 0.2706947326660156, -0.004151806700974703, -0.4612698256969452, 0.21272672712802887, -0.1264573037624359, 0.6248250007629395, 0.4263004660606384, -0.08116881549358368, -0.287781685590744, 0.212679922580719, 0.2662372887134552, },
	{0.33650434017181396, 0.23976807296276093, 0.514325737953186, -0.3199038505554199, -0.1619095355272293, -0.5516501069068909, -0.09521728754043579, 0.14117656648159027, -0.161321222782135, -0.10950684547424316, 0.11985659599304199, -0.060984812676906586, 0.39846596121788025, -0.4175996780395508, -0.1317709982395172, 0.021390307694673538, 0.10832137614488602, -0.21264764666557312, -0.27471745014190674, 0.367209792137146, 0.105877585709095, 0.24774226546287537, 0.20816300809383392, -0.596664547920227, 0.37357690930366516, -0.4072428345680237, 0.45300549268722534, 0.16865740716457367, -0.2511806786060333, 0.2814698815345764, -0.15501749515533447, 0.07410645484924316, },
	{0.13379141688346863, 0.6339371204376221, 0.43080833554267883, -0.3503929078578949, -0.07792172580957413, -0.5130727887153625, 0.12072628736495972, 0.5690118074417114, 0.01662766933441162, 0.057282865047454834, 0.18701940774917603, 0.03721480816602707, 0.46716082096099854, -0.16423539817333221, -0.19621093571186066, -0.18378762900829315, 0.24733465909957886, -0.050805773586034775, 0.1231580376625061, 0.6335595846176147, 0.33691632747650146, 0.7440713047981262, 0.18820951879024506, -0.44919154047966003, 0.5220518708229065, 0.2114678919315338, 0.4239047169685364, 0.3400441110134125, 0.029039565473794937, 0.05335617437958717, -0.10572957992553711, 0.38410329818725586, },
	{-0.05379323288798332, 0.8911144137382507, 0.17622019350528717, -0.46761611104011536, -0.16557417809963226, -0.5007522106170654, -0.028054893016815186, 0.29605159163475037, -0.023355722427368164, -0.23090147972106934, 0.2314113974571228, 0.1300039142370224, 0.9887223243713379, 0.07433000952005386, -0.2931140661239624, -0.3321765661239624, -0.08505875617265701, 0.07268359512090683, -0.0891924649477005, 0.54754638671875, 0.336607426404953, 0.5437173247337341, -0.025149982422590256, -0.4186500310897827, 0.32475802302360535, 0.17793266475200653, 0.2732120156288147, -0.02618853747844696, 0.2343617081642151, 0.5226156711578369, 0.16513854265213013, -0.08368705213069916, },
	{-0.04919363930821419, 0.990117609500885, 0.21867188811302185, -0.2700496017932892, -0.14571821689605713, -0.170866921544075, 0.14480376243591309, 0.04025489464402199, -0.24637913703918457, -0.13043469190597534, 0.11961328983306885, 0.3492972254753113, 0.69173663854599, -0.130573108792305, -0.39734455943107605, -0.2746410369873047, 0.03832726180553436, 0.005486962851136923, 0.3910277485847473, 0.3690517842769623, 0.31311795115470886, 0.7976589798927307, 0.2499256730079651, -0.6345478892326355, 0.83247309923172, 0.2518792152404785, 0.6065590381622314, 0.21303993463516235, 0.2719723582267761, 0.17883877456188202, 0.1296156644821167, -0.18815691769123077, },
	{0.45841094851493835, 0.8443564176559448, -0.05813608691096306, -0.3151508569717407, 0.14805439114570618, -0.04112258926033974, 0.2408718466758728, -0.09632973372936249, 0.14630001783370972, -0.0817379355430603, -0.24287867546081543, 0.09775552153587341, 0.7430126667022705, 0.12307913601398468, 0.03295223042368889, -0.6296138763427734, -0.12288378924131393, 0.23051349818706512, 0.2596082389354706, 0.10092515498399734, 0.3509664237499237, 0.6525297164916992, 0.22299505770206451, -0.4228283166885376, 0.8220295906066895, 0.16679511964321136, 0.464405357837677, 0.06676918268203735, 0.3784438967704773, 0.6412724256515503, -0.04259520769119263, -0.4668436050415039, },
	{0.3776855766773224, 1.20943021774292, 0.10236816853284836, -0.413335919380188, 0.018281519412994385, 0.22721987962722778, -0.24207890033721924, -0.2193598747253418, 0.21892023086547852, 0.20475322008132935, -0.18578630685806274, 0.3022623062133789, 0.8865495324134827, 0.08402526378631592, 0.1501295268535614, -0.3897075057029724, 0.13421949744224548, -0.19583790004253387, 0.3789607882499695, 0.06947404891252518, 0.20646944642066956, 0.7294936776161194, 0.050420377403497696, -0.13179953396320343, 0.7179751992225647, 0.027578314766287804, 0.2898705005645752, -0.10249467939138412, 0.34626421332359314, 0.3504806458950043, 0.09182029962539673, -0.12140826135873795, },
	{0.04914727434515953, 0.8349847197532654, -0.12767165899276733, -0.37994205951690674, -0.11953836679458618, 0.11440946161746979, -0.14419806003570557, -0.5565938949584961, 0.14800620079040527, -0.11107641458511353, 0.049252450466156006, -0.06929262727499008, 0.5683557987213135, 0.08858606964349747, 0.44214925169944763, -0.37285637855529785, 0.44915032386779785, 0.15447255969047546, 0.38193002343177795, -0.08124957233667374, -0.021507009863853455, 0.7574470043182373, -0.09393250197172165, -0.3336763381958008, 0.18462026119232178, -0.6766677498817444, 0.23676660656929016, -0.6436632871627808, 0.3411048650741577, 0.3279699981212616, -0.04502385854721069, -0.250744491815567, },
	{-0.47549527883529663, 0.5488032698631287, 0.06213286891579628, 0.09116590023040771, -0.08248304575681686, -0.3548995554447174, 0.04501622915267944, -0.3731871247291565, -0.21506547927856445, -0.04632824659347534, -0.23851364850997925, 0.0848051980137825, 0.5569031238555908, 0.22590893507003784, 0.57780921459198, 0.04664965346455574, 0.19356992840766907, 0.017932113260030746, 0.44952476024627686, -0.5374982953071594, 0.20364084839820862, 0.43597301840782166, 0.0021808715537190437, 0.2778872549533844, 0.08009002357721329, -0.9290085434913635, 0.0010631945915520191, -0.8101587891578674, 0.13183343410491943, 0.3252776265144348, -0.15930825471878052, 0.3219519853591919, },
	{-0.5275117754936218, 0.6412800550460815, -0.14276109635829926, 0.08794179558753967, -0.18515510857105255, -0.7307885885238647, -0.1063271164894104, -0.0030285322573035955, -0.1003572940826416, -0.029642581939697266, -0.18067538738250732, -0.08193162083625793, 0.8796766996383667, -0.011491828598082066, 0.6097591519355774, 0.2119702845811844, 0.4908864498138428, -0.20951628684997559, 0.35012087225914, -0.18917928636074066, 0.1112029030919075, 0.32455313205718994, 0.46750813722610474, 0.010106107220053673, -0.211805060505867, -1.0795270204544067, 0.14277997612953186, -0.6430901288986206, 0.028727872297167778, 0.13469302654266357, -0.20253080129623413, -0.08936990797519684, },
	{-0.27296721935272217, 0.4943479597568512, -0.493758887052536, 0.34692415595054626, 0.04315347224473953, -0.2354276478290558, -0.17909258604049683, 0.07253962010145187, -0.2247546911239624, -0.06868165731430054, -0.050477802753448486, 0.2924990653991699, 0.31760916113853455, -0.09960741549730301, 0.8735288381576538, 0.39962297677993774, 0.7780591249465942, -0.1403355747461319, 0.19429802894592285, -0.12453383207321167, -0.02586694434285164, 0.11057773232460022, 0.2512044310569763, 0.4805920422077179, -0.0439252071082592, -1.1595938205718994, -0.09319432824850082, -0.9271484613418579, -0.2422787994146347, 0.06616361439228058, 0.2036149501800537, 0.10162579268217087, },
	{-0.49083131551742554, 0.6401348114013672, -0.4032144248485565, -0.024046657606959343, 0.20506823062896729, 0.16646748781204224, 0.2004038691520691, 0.07604900002479553, 0.17655128240585327, -0.03593564033508301, 0.05056184530258179, 0.17492038011550903, 0.40406352281570435, -0.40709158778190613, 0.5725558996200562, 0.4135909676551819, 0.6245824694633484, 0.17122605443000793, 0.45948344469070435, -0.1246962696313858, -0.10723444074392319, 0.11047621816396713, 0.47921645641326904, 0.7305132746696472, -0.23361344635486603, -1.2103338241577148, -0.5775213837623596, -0.5483382940292358, -0.13338987529277802, 0.12323889881372452, -0.000604093074798584, -0.1582312434911728, },
	{-0.269985556602478, 0.6637099385261536, -0.3169328570365906, 0.05164763331413269, 0.11672589927911758, 0.2566543519496918, 0.15224307775497437, -0.240883931517601, 0.18064463138580322, 0.1885778307914734, 0.12313175201416016, -0.19851569831371307, 0.20813769102096558, -0.30022329092025757, 0.3229998052120209, 0.24824564158916473, 0.9270644783973694, 0.24422761797904968, 0.17749595642089844, 0.01756386086344719, -0.3591316342353821, -0.0056000398471951485, 0.3843613862991333, 0.7915060520172119, -0.44286632537841797, -1.2544445991516113, -0.9106124639511108, -0.34890589118003845, -0.09221646934747696, 0.08666189014911652, 0.0024605393409729004, -0.045519113540649414, },
	{0.0813806876540184, 0.5047120451927185, -0.07076636701822281, -0.040243443101644516, -0.15676665306091309, 0.5110628604888916, -0.0705752968788147, -0.09191099554300308, 0.16357558965682983, -0.02514946460723877, 0.13693982362747192, 0.18212929368019104, 0.23730498552322388, 0.051069870591163635, 0.24530678987503052, 0.38671568036079407, 0.5726428031921387, -0.2266661375761032, 0.1866491734981537, 0.08152282238006592, -0.16243387758731842, -0.16743426024913788, -0.09946954250335693, 0.5689183473587036, -0.4542151093482971, -0.7937242984771729, -0.8470513224601746, -0.4030815660953522, -0.13204286992549896, -0.062267061322927475, 0.17549681663513184, 0.003325374098494649, },
	{0.030083851888775826, 0.6318683624267578, 0.014787863940000534, -0.3953178822994232, 0.14939114451408386, 0.2861120104789734, -0.1913834810256958, -0.1436522752046585, -0.10453879833221436, -0.06046348810195923, 0.1209673285484314, 0.16370905935764313, 0.4841427803039551, -0.045734331011772156, 0.07656820118427277, -0.13912777602672577, 0.7864249348640442, -0.09798096865415573, 0.05389595031738281, -0.06404633074998856, 0.11078046262264252, -0.13906818628311157, 0.021426251158118248, 0.25870901346206665, -0.4961085915565491, -1.148816704750061, -0.7879769802093506, -0.046178773045539856, -0.3968604803085327, -0.07915301620960236, -0.12734228372573853, -0.04818449169397354, },
	{0.2968981862068176, 0.5561999082565308, 0.44992244243621826, -0.39537811279296875, -0.18926343321800232, -0.006954801734536886, -0.21768414974212646, -0.28882840275764465, 0.11722952127456665, 0.20387881994247437, -0.10321706533432007, -0.30667629837989807, 0.3805294632911682, 0.13865281641483307, 0.16020658612251282, 0.3579212725162506, 0.739354133605957, 0.015794645994901657, -0.1856938749551773, -0.1289961338043213, -0.09654794633388519, -0.4810635447502136, -0.2603151202201843, 0.0693250373005867, -0.5098652243614197, -0.8036996126174927, -0.23095516860485077, -0.31663641333580017, -0.535741925239563, -0.2333211600780487, 0.09209537506103516, -0.2447260022163391, },
	{0.09905122220516205, 0.3273695111274719, 0.008309874683618546, -0.2456355094909668, -0.029141249135136604, 0.028192108497023582, 0.05915355682373047, -0.5078610777854919, -0.13073694705963135, 0.10900741815567017, 0.24781763553619385, -0.15585871040821075, 0.6051957011222839, 0.2839412987232208, -0.2666458785533905, 0.19438853859901428, 1.1480523347854614, -0.21457736194133759, 0.07421725243330002, -0.0520126037299633, -0.06627047061920166, -0.5383850336074829, 0.39983418583869934, -0.42741653323173523, -0.46477940678596497, -0.462598979473114, 0.012067954987287521, 0.1584940105676651, -0.6908925175666809, -0.31464147567749023, -0.2482568621635437, -0.0025450452230870724, },
	{-0.016470929607748985, 0.11856590211391449, -0.16335760056972504, -0.4856001138687134, 0.15161843597888947, 0.02357780933380127, 0.05025792121887207, -0.23969823122024536, 0.23256808519363403, 0.10501575469970703, 0.012258768081665039, -0.3079392611980438, 0.7468568086624146, -0.020019574090838432, -0.5213266611099243, 0.5069959163665771, 1.1707626581192017, 0.24202720820903778, 0.1758480966091156, 0.17348575592041016, -0.1866093873977661, -0.48905178904533386, 0.5607082843780518, -0.3975755274295807, -0.8778138160705566, 0.07196670770645142, -0.21582190692424774, -0.2100171148777008, -0.47459739446640015, -0.22297032177448273, -0.17645704746246338, 0.10732544213533401, },
	{0.41627898812294006, 0.0055732326582074165, -0.4586113393306732, -0.3793254494667053, -0.16528289020061493, -0.1845536082983017, 0.2094019651412964, -0.3229454755783081, 0.17941659688949585, -0.183214008808136, -0.24675911664962769, -0.06603912264108658, 0.30853545665740967, 0.23293204605579376, -0.4752030372619629, 0.27642035484313965, 1.1036009788513184, 0.010360258631408215, 0.200666144490242, 0.17051754891872406, 0.13042615354061127, -0.08112034946680069, 0.704047679901123, -0.16889864206314087, -0.8140714764595032, -0.15448449552059174, 0.2732728123664856, -0.15602019429206848, -0.6272681355476379, -0.1004076823592186, -0.12691199779510498, 0.04212987795472145, },
	{0.4728800356388092, -0.09524940699338913, -0.22697339951992035, -0.3923976421356201, 0.08045737445354462, 0.37355688214302063, -0.06579017639160156, -0.325982928276062, -0.09759914875030518, -0.23720580339431763, -0.09320259094238281, -0.0467657707631588, 0.49557197093963623, 0.09551913291215897, -0.38412100076675415, 0.03596856817603111, 1.1005281209945679, 0.2070503830909729, 0.030071737244725227, -0.25620684027671814, -0.0004298306303098798, 0.05740456283092499, 0.8515018224716187, 0.09753846377134323, -0.7508502006530762, 0.31271883845329285, 0.2546728551387787, -0.16796356439590454, -0.466007798910141, -0.2960524559020996, -0.034115374088287354, 0.30234581232070923, },
	{0.4880613386631012, -0.13338634371757507, -0.10966739803552628, -0.307327538728714, -0.12809988856315613, 0.7297242879867554, -0.037969112396240234, -0.4803367555141449, -0.10653245449066162, 0.007599771022796631, -0.0736997127532959, -0.10793665051460266, -0.211117684841156, 0.4211520552635193, -0.40195217728614807, 0.12471703439950943, 0.7642581462860107, -0.2447546273469925, 0.049744222313165665, -0.4170352816581726, 0.025881029665470123, -0.10891489684581757, 1.0630565881729126, -0.1375504732131958, -1.1175682544708252, 0.5767655372619629, -0.11922462284564972, -0.26542919874191284, -0.8623225688934326, -0.10898862034082413, 0.09410476684570312, 0.0852469652891159, },
	{0.21991845965385437, 0.18021129071712494, 0.4202723503112793, -0.43829119205474854, 0.15242429077625275, 0.3930036127567291, -0.17250728607177734, -0.6374597549438477, -0.15600353479385376, 0.0930357575416565, 0.16796010732650757, -0.01311632338911295, 0.07162818312644958, 0.059979259967803955, -0.46411818265914917, 0.3171655535697937, 0.6363077163696289, -0.15268342196941376, 0.30221685767173767, -0.8147163987159729, -0.0983252078294754, -0.24921071529388428, 1.0346856117248535, -0.0691399872303009, -0.8737406134605408, 0.7536372542381287, 0.08593764156103134, -0.2815261483192444, -0.6917510032653809, -0.30508050322532654, -0.08397805690765381, 0.04034937545657158, },
	{0.4457060992717743, -0.25286442041397095, 0.13895677030086517, 0.11863190680742264, -0.08656866103410721, 0.329393595457077, 0.18993401527404785, -0.10972899198532104, -0.20819908380508423, 0.02442878484725952, -0.07831025123596191, 0.08524395525455475, -0.046581368893384933, 0.0785752683877945, -0.23865993320941925, -0.008705607615411282, 0.06685920804738998, -0.08390559256076813, -0.12214285135269165, -0.7205270528793335, -0.16619041562080383, -0.37447625398635864, 1.5622336864471436, -0.2188030630350113, -0.7940366268157959, 0.9909747242927551, -0.10757813602685928, -0.11833324283361435, -0.5303483009338379, -0.3603307008743286, -0.21916574239730835, -0.0864250659942627, },
	{-0.059566449373960495, -0.30244359374046326, 0.26848873496055603, -0.004996136296540499, -0.10788855701684952, 0.37710100412368774, 0.22550123929977417, 0.05038566142320633, -0.11582481861114502, -0.10972714424133301, 0.16497987508773804, 0.07464628666639328, -0.225534126162529, 0.1780220866203308, -0.5815908312797546, -0.028531167656183243, -0.1252506822347641, -0.08580335974693298, 0.07108139991760254, -0.08895105868577957, -0.1165393739938736, -0.20587976276874542, 1.7322226762771606, 0.08613436669111252, -0.5478807687759399, 0.8591349124908447, 0.26058369874954224, 0.31070592999458313, -0.5214153528213501, -0.026794854551553726, -0.036913931369781494, -0.1473768651485443, },
	{-0.21508464217185974, 0.04445279762148857, -0.12855930626392365, -0.19477860629558563, -0.21043933928012848, 0.22663068771362305, -0.02492702007293701, 0.40254804491996765, 0.08235079050064087, 0.06459075212478638, -0.009241640567779541, 0.14662452042102814, -0.3988439440727234, -0.1543622761964798, -0.1696387678384781, -0.20106498897075653, -0.2205030769109726, -0.062270935624837875, -0.08307868242263794, 0.18025155365467072, -0.4383513629436493, -0.46823233366012573, 2.0631120204925537, 0.20767104625701904, -0.21220079064369202, 0.4941100776195526, 0.37801599502563477, 0.40898245573043823, 0.056876275688409805, -0.3210645616054535, -0.16306334733963013, -0.3290126323699951, },
	{-0.30318087339401245, 0.023675575852394104, 0.1869899481534958, -0.10494567453861237, 0.17029860615730286, 0.5417314171791077, -0.20859801769256592, 0.9274404048919678, 0.10497736930847168, 0.05288153886795044, 0.069729745388031, 0.12806808948516846, -0.14888620376586914, 0.22072431445121765, -0.18046776950359344, -0.2477346658706665, -0.42610597610473633, 0.13565048575401306, 0.20441579818725586, 0.7997314929962158, -0.5137647390365601, -0.7496963739395142, 2.176553249359131, 0.13725140690803528, 0.0535070039331913, -0.09408268332481384, 0.6917134523391724, 0.4715329706668854, 0.7696631550788879, 0.03621186688542366, -0.02431631088256836, -0.2612513303756714, },
	{-0.7795259356498718, -0.046873029321432114, -0.026964398100972176, -0.1133074164390564, -0.007261673919856548, 0.8268018364906311, 0.17493319511413574, 1.6532014608383179, 0.05983775854110718, -0.08407354354858398, -0.23640429973602295, -0.15354613959789276, -0.14576096832752228, -0.18741312623023987, 0.08613047748804092, 0.0850014016032219, -0.5019534826278687, -0.08078049123287201, -0.15935803949832916, 0.9067974090576172, -0.26267626881599426, -0.5525913238525391, 1.9146708250045776, 0.26221463084220886, 0.23485742509365082, -0.6320842504501343, 0.4054194986820221, 0.43270739912986755, 1.3347876071929932, -0.3522176742553711, 0.014391541481018066, -0.6935227513313293, },
	{-1.6777150630950928, -0.2411184310913086, 0.12113574147224426, -0.22628848254680634, -0.03758492320775986, 1.39753258228302, -0.10464638471603394, 1.768878698348999, -0.22600573301315308, -0.22356992959976196, -0.14496195316314697, -0.10746084153652191, 0.23508894443511963, -0.041306693106889725, -0.11517520248889923, 0.07743833214044571, -0.5246091485023499, -0.21200254559516907, -0.197150319814682, 0.7301455140113831, -0.34293875098228455, -0.4139736294746399, 1.375777006149292, 0.27919653058052063, 0.207074835896492, -0.6482888460159302, 0.19076354801654816, -0.036071907728910446, 1.1788389682769775, -0.4817988872528076, -0.15863758325576782, -0.7370803356170654, },
	{-2.0301666259765625, -0.1304587423801422, 0.2411973476409912, -0.2029498964548111, 0.20386147499084473, 1.9598644971847534, -0.031248390674591064, 1.900320291519165, -0.060304224491119385, -0.18632012605667114, -0.23878902196884155, 0.006046062335371971, 0.18329481780529022, 0.1579972356557846, 0.21670633554458618, 0.06564892083406448, -0.8697819113731384, -0.08222949504852295, -0.4284731149673462, 0.5343574285507202, 0.07826141268014908, -0.4622430205345154, 0.4207409918308258, 0.548193097114563, 0.7365695238113403, -0.40040239691734314, 0.0018256516195833683, 0.09408947825431824, 1.104609489440918, -0.36351802945137024, -0.1699572205543518, 0.08357098698616028, },
	{-2.317760467529297, -0.08300280570983887, 0.12126798182725906, -0.14544935524463654, 0.11193075776100159, 2.025007724761963, -0.011224746704101562, 1.528254508972168, -0.06913185119628906, 0.11247670650482178, -0.15939468145370483, 0.15542779862880707, 0.5201706290245056, -0.060814205557107925, 0.521649956703186, 0.41288554668426514, -1.1662616729736328, 0.21770645678043365, -0.8818532824516296, 0.6892905831336975, -0.24670206010341644, -0.084882952272892, -0.46492311358451843, 0.7411477565765381, 0.8478463888168335, 0.07377291470766068, 0.08597689867019653, 0.11706553399562836, 0.6726913452148438, -0.21175214648246765, 0.2030872106552124, 0.35392680764198303, },
	{-2.761821985244751, -0.2912138104438782, 0.11495830118656158, -0.043891169130802155, 0.17973574995994568, 2.0855867862701416, -0.0874205231666565, 1.2999194860458374, -0.22824615240097046, -0.04983043670654297, 0.1058008074760437, 0.10742215067148209, 0.4263518154621124, -0.20214062929153442, 0.5882222056388855, 0.21238695085048676, -0.7090989947319031, -0.19072486460208893, -0.7110951542854309, 1.2551276683807373, -0.07662295550107956, 0.030753474682569504, -1.3012659549713135, 0.7980998158454895, 0.20753470063209534, 0.13861100375652313, -0.1801513433456421, -0.038424354046583176, 0.2124645709991455, -0.217740997672081, -0.1925106644630432, 0.9796665906906128, },
	{-2.1806139945983887, -0.4739966094493866, -0.11992452293634415, 0.08694389462471008, -0.17622163891792297, 1.5323370695114136, 0.09765279293060303, 0.9375430345535278, 0.11874657869338989, 0.05344653129577637, -0.12498617172241211, 0.014764507301151752, 0.3870062232017517, -0.19609639048576355, 0.583393931388855, 0.2580375075340271, -1.1445797681808472, 0.08612731099128723, -0.1918262243270874, 1.5193580389022827, -0.20219308137893677, 0.5039229989051819, -1.695328712463379, 0.8059185743331909, 0.47401106357574463, 0.39102858304977417, -0.296821653842926, -0.11781364679336548, -0.41899171471595764, -0.13970786333084106, 0.21018993854522705, 1.7923983335494995, },
	{-1.8524415493011475, -0.6652624607086182, -0.030292270705103874, -0.053660862147808075, 0.08263953030109406, 0.7181262969970703, 0.2224351167678833, 0.4598011374473572, -0.07527321577072144, -0.018213212490081787, -0.13864821195602417, -0.11095380783081055, 0.1617901772260666, -0.39951714873313904, 0.7134978175163269, 0.1649538278579712, -1.0646378993988037, -0.1905706524848938, 0.43920302391052246, 1.811352252960205, -0.2814856767654419, 0.2656141221523285, -1.665693998336792, 0.6353508830070496, 0.44336268305778503, -0.28244292736053467, -0.17463088035583496, -0.1383243352174759, -0.8119755983352661, -0.03689436614513397, -0.1543528437614441, 2.462803840637207, },
	{-1.3072335720062256, -0.7789803743362427, -0.08656002581119537, -0.22555667161941528, -0.0785449966788292, -0.25632190704345703, -0.16260939836502075, 0.037225209176540375, -0.15878236293792725, -0.05384021997451782, 0.07016557455062866, 0.1707121729850769, -0.28018683195114136, -0.469240665435791, 0.6582087874412537, -0.2003611922264099, -0.9876582026481628, 0.21640503406524658, 0.8463634252548218, 2.413334846496582, -0.38569211959838867, 0.22774112224578857, -1.007312536239624, 0.5645445585250854, 0.5002972483634949, -0.4352506995201111, -0.07472145557403564, -0.6313745975494385, -0.9755597114562988, 0.218888521194458, -0.06727999448776245, 2.9724321365356445, },
	{-0.47400403022766113, -0.8544580340385437, 0.18064817786216736, -0.569621741771698, 0.18711042404174805, -1.1546000242233276, 0.1508864164352417, -0.14753209054470062, -0.10082852840423584, 0.020639240741729736, 0.0622212290763855, -0.05052207410335541, -0.17356137931346893, -0.19476941227912903, 0.3544919788837433, 0.15470342338085175, -1.3662880659103394, -0.12125375121831894, 0.9291353225708008, 2.7119948863983154, -0.11051727831363678, 0.02360711619257927, -0.5322249531745911, 0.2350347340106964, 0.8999347686767578, -0.6497350335121155, -0.15359514951705933, -0.2870163917541504, -1.3072504997253418, -0.025830376893281937, -0.06471908092498779, 3.0222361087799072, },
	{0.4140847325325012, -0.896935224533081, 0.5959718823432922, -0.5729314684867859, -0.22462132573127747, -2.311072826385498, 0.1519564986228943, -0.37218254804611206, -0.21320194005966187, -0.007747948169708252, 0.006804823875427246, 0.016095342114567757, -0.11262772232294083, -0.24644996225833893, 0.05653446167707443, 0.08717763423919678, -1.3406325578689575, -0.15335197746753693, 1.0484663248062134, 2.8638792037963867, -0.5065653324127197, -0.2232336401939392, -0.2605898082256317, -0.3932135999202728, 1.0168461799621582, -0.81031733751297, -0.543943464756012, -0.10055137425661087, -1.231062650680542, 0.3296780288219452, -0.22059965133666992, 2.4523823261260986, },
	{0.820899248123169, -0.687054455280304, 1.4468027353286743, -0.3542838990688324, -0.22234269976615906, -2.9231176376342773, 0.21805816888809204, -0.027576368302106857, 0.008038997650146484, -0.0002828240394592285, 0.21958816051483154, -0.12789925932884216, 0.47713762521743774, 0.04494572430849075, 0.11818692088127136, -0.23715680837631226, -1.5237005949020386, -0.1580166220664978, 0.8281901478767395, 2.4434192180633545, -0.5446926951408386, -0.1910323202610016, 0.030246764421463013, -0.41906851530075073, 1.2928887605667114, -0.5413225889205933, -0.6244311332702637, 0.011381369084119797, -1.3811386823654175, 0.2034866362810135, 0.24031132459640503, 2.0092127323150635, },
	{1.5950547456741333, -1.0186688899993896, 2.0785341262817383, -0.08332527428865433, 0.15291006863117218, -3.015326976776123, -0.0844617486000061, -0.15266749262809753, 0.0430295467376709, -0.23713886737823486, -0.03460043668746948, -0.17799313366413116, 0.5272471904754639, 0.4273985028266907, 0.23559600114822388, 0.06295605003833771, -1.5906928777694702, -0.03700803220272064, 1.042912244796753, 1.0646960735321045, -0.6848101019859314, -0.1052878350019455, 0.09886324405670166, -0.3255540430545807, 1.1580218076705933, -0.5488254427909851, -0.8365429639816284, 0.7721511721611023, -0.9311134219169617, -0.05532548204064369, 0.0998653769493103, 1.0519740581512451, },
	{1.6744279861450195, -1.218643069267273, 2.3287837505340576, -0.012718415819108486, -0.15760093927383423, -2.5645875930786133, 0.03683751821517944, -0.04151849448680878, 0.030031144618988037, 0.24398136138916016, -0.2085580825805664, -0.1918841153383255, 0.3247494697570801, 0.4258211851119995, -0.11533327400684357, -0.37094008922576904, -1.235677719116211, -0.13828173279762268, 1.397797703742981, 0.04128594323992729, -0.6507830619812012, -0.21155337989330292, 0.21062903106212616, -0.33232319355010986, 1.2934539318084717, -0.5062251687049866, -1.3005293607711792, 0.7359151840209961, -0.36720597743988037, -0.048989780247211456, -0.19608616828918457, 0.4443363547325134, },
	{1.2347947359085083, -1.0551245212554932, 2.44616961479187, 0.013308200985193253, 0.07251674681901932, -1.6751056909561157, -0.1459113359451294, 0.19996504485607147, -0.09446555376052856, -0.07666528224945068, -0.05538243055343628, 0.05440257117152214, 0.3942604660987854, 0.30851179361343384, -0.38434311747550964, -0.5297200083732605, -0.8206481337547302, 0.08587487787008286, 1.745375394821167, -1.396415114402771, -0.8439512848854065, 0.05819428712129593, 0.48491063714027405, -0.37169724702835083, 1.0297577381134033, -0.345458984375, -1.5582606792449951, 0.9569212794303894, 0.7051014304161072, -0.012401227839291096, 0.024644553661346436, -0.5987863540649414, },
	{1.1481645107269287, -1.0361526012420654, 1.5672889947891235, -0.1527382880449295, -0.11731796711683273, -0.5321983098983765, 0.008852601051330566, -0.16200551390647888, -0.22913461923599243, -0.21397185325622559, -0.05870872735977173, -0.05767139047384262, 0.4401603937149048, -0.37306731939315796, -0.35148075222969055, -0.7921780347824097, -0.7494165897369385, -0.2475574016571045, 2.2650654315948486, -2.419398069381714, -0.6033247709274292, 0.34578993916511536, 0.21043501794338226, -0.283132404088974, 0.929079532623291, -0.9235107898712158, -2.1080987453460693, 0.3677269220352173, 1.558035135269165, -0.14234554767608643, 0.1209365725517273, -0.9957838654518127, },
	{0.7079785466194153, -1.0388774871826172, 0.8837857842445374, 0.140284925699234, 0.02760663628578186, -0.12839604914188385, 0.12124216556549072, -0.8158876299858093, -0.11312228441238403, 0.06042283773422241, 0.17022281885147095, -0.2737341523170471, 0.6151548624038696, -0.4397248327732086, -0.0588364340364933, -0.6442359089851379, -0.13054367899894714, -0.07922209799289703, 2.6429622173309326, -2.752319574356079, -0.8872799277305603, 0.40593382716178894, -0.10309256613254547, -0.45324984192848206, 0.26338180899620056, -1.2493634223937988, -1.9023064374923706, 0.3259061872959137, 2.10198712348938, -0.30951306223869324, -0.1518358588218689, -0.9303981065750122, },
	{0.6147894859313965, -0.6303418278694153, 0.037781696766614914, -0.463498592376709, 0.047820087522268295, 1.0351542234420776, -0.13807564973831177, -1.7238556146621704, 0.19295120239257812, 0.23652148246765137, 0.16464269161224365, 0.0956457331776619, 0.34942570328712463, -1.1273459196090698, -0.24684222042560577, -0.38479989767074585, 0.18670015037059784, -0.09412001818418503, 2.868583917617798, -2.7908973693847656, -0.5987822413444519, 0.5321510434150696, -0.19015386700630188, -0.1164788007736206, -0.1842479705810547, -1.6981761455535889, -2.0386202335357666, -0.19685925543308258, 2.896038293838501, -0.5062529444694519, 0.19850367307662964, -1.4038139581680298, },
	{0.2045944333076477, -0.3146918714046478, -0.8245542645454407, -0.2007773518562317, -0.11405961215496063, 1.1538187265396118, 0.16176724433898926, -1.9714196920394897, 0.23209470510482788, -0.14971530437469482, 0.06588774919509888, -0.13582108914852142, -0.12025947123765945, -1.4724295139312744, -0.026861529797315598, -0.3996436893939972, 0.5087650418281555, 0.1533350646495819, 2.97689151763916, -2.4178483486175537, -0.7646389007568359, 0.7906568646430969, -0.36335378885269165, 0.09131383895874023, -0.9107441306114197, -1.7429938316345215, -0.904593825340271, -0.7650731205940247, 2.966411590576172, -0.18364320695400238, 0.04627788066864014, -1.0341211557388306, },
	{-0.008992118760943413, -0.4977399408817291, -1.706319808959961, -0.3772814869880676, 0.07502014189958572, 1.5419691801071167, -0.17530059814453125, -2.712035894393921, -0.1663346290588379, -0.20187675952911377, 0.18763583898544312, -0.3088747262954712, 0.06571368873119354, -1.7509987354278564, 0.10592412203550339, 0.520031213760376, 0.24912583827972412, -4.637773963622749e-05, 2.534745454788208, -2.213146686553955, -1.0635523796081543, 0.9070164561271667, -0.6037061214447021, 0.08033222705125809, -0.836733341217041, -1.5738239288330078, -0.5167511701583862, -0.682674765586853, 2.48917818069458, 0.15090034902095795, 0.03304499387741089, -0.7709629535675049, },
	{-0.35945793986320496, -0.33214008808135986, -2.4517948627471924, -0.5137785077095032, 0.05634131655097008, 1.167761206626892, 0.024314165115356445, -2.7914392948150635, -0.06813359260559082, 0.2353554368019104, 0.10824966430664062, 0.10645212978124619, -0.13386209309101105, -1.6870239973068237, -0.09748028963804245, 1.400804877281189, -0.2086738646030426, 0.0022929366677999496, 1.3461112976074219, -2.162128210067749, -0.8413352966308594, 1.2295302152633667, -0.5100275874137878, 0.43411555886268616, -0.6000564098358154, -1.1569699048995972, 0.6758924722671509, -0.4790215790271759, 2.0463993549346924, 0.06479281932115555, -0.10308706760406494, -0.4818301200866699, },
	{-0.07310333847999573, -0.4340894818305969, -2.692303419113159, -0.6446995139122009, 0.016119686886668205, 0.7020804286003113, -0.1713988184928894, -2.466306209564209, 0.12152135372161865, -0.1044190526008606, -0.038061439990997314, -0.1526462882757187, -0.2996648848056793, -1.3116081953048706, -0.12311181426048279, 2.0632848739624023, -0.9162546992301941, -0.14579911530017853, 0.16718259453773499, -1.6451737880706787, -0.7096728682518005, 1.1875470876693726, -0.969243049621582, 0.7934601306915283, -0.6770231127738953, -0.11117535084486008, 1.658674955368042, -0.4350077211856842, 1.2641069889068604, 0.5005083084106445, 0.03779149055480957, -0.15802611410617828, },
	{-0.24808494746685028, -0.33606603741645813, -2.7349607944488525, -0.5924556255340576, -0.08351466804742813, 0.24360287189483643, -0.1961582899093628, -1.9040671586990356, -0.05137169361114502, -0.00227510929107666, 0.057785630226135254, -0.03045307658612728, -0.541088342666626, -0.36131802201271057, -0.14469215273857117, 2.74442982673645, -1.3539484739303589, -0.01122282724827528, -0.849213182926178, -1.690422773361206, -0.6717842221260071, 0.7624423503875732, -0.779129147529602, 0.6190375089645386, -0.35401254892349243, 0.518190324306488, 1.8668206930160522, 0.044500868767499924, 0.5018459558486938, 0.6680530309677124, 0.14587819576263428, -0.21430140733718872, },
	{-0.44353872537612915, 0.2582491636276245, -2.9185094833374023, 0.07226035743951797, -0.1984531134366989, 0.0446719229221344, -0.01044243574142456, -1.4662026166915894, -0.1263982653617859, -0.1860029697418213, -0.11400514841079712, 0.06218063831329346, -0.5040596127510071, 0.5613945722579956, -0.42301803827285767, 2.3433308601379395, -1.3625762462615967, -0.18495669960975647, -1.3620516061782837, -0.5097992420196533, -0.4148193597793579, 0.6392956972122192, -1.13359534740448, 0.5146471858024597, -0.6072330474853516, 0.6675214171409607, 2.2332603931427, 0.33172687888145447, 0.02591622620820999, 0.7012932300567627, -0.06694871187210083, 0.21785299479961395, },
	{-0.2734415531158447, 0.3892069458961487, -2.439423084259033, 1.1794095039367676, -0.017432386055588722, -0.4304042160511017, -0.047554612159729004, -0.8119958639144897, 0.14209330081939697, 0.151921808719635, -0.06278121471405029, -0.1405407041311264, -1.103887677192688, 1.526849389076233, -0.5929903984069824, 2.294347047805786, -0.6182264685630798, -0.03347353637218475, -2.443406820297241, 0.21271051466464996, 0.016893357038497925, 0.11736811697483063, -1.4587113857269287, 0.20930154621601105, -0.4362022876739502, 0.46810799837112427, 2.106548309326172, 0.4403039515018463, -0.7534378170967102, 0.5595272183418274, -0.14089977741241455, 0.04073086380958557, },
	{0.4389657974243164, 0.1403261423110962, -1.245535135269165, 1.6077086925506592, -0.2128288447856903, -0.5402798056602478, -0.14879602193832397, 0.29710647463798523, -0.23629778623580933, 0.103596031665802, -0.1542019248008728, -0.2163710743188858, -1.5159939527511597, 1.145387053489685, -0.5510902404785156, 1.7067070007324219, 0.22599545121192932, 0.10920661687850952, -3.00893497467041, 0.3597550690174103, 0.621041476726532, 0.05947120487689972, -0.966869592666626, -0.3879987895488739, -0.6582157015800476, 0.7789851427078247, 1.890594720840454, 0.07901327311992645, -1.685996651649475, 0.5691012740135193, 0.01819390058517456, -0.4740084409713745, },
	{0.7267769575119019, 0.08958831429481506, -0.026177583262324333, 2.173405408859253, 0.008062437176704407, 0.39660215377807617, -0.19175469875335693, 1.4799869060516357, -0.2481604814529419, 0.17753136157989502, -0.19622236490249634, -0.18939520418643951, -1.514925241470337, 0.43007928133010864, -1.1645090579986572, 0.863298773765564, 1.9368891716003418, 0.07192134112119675, -2.385927438735962, 0.8654583096504211, 0.7770729660987854, -0.13708466291427612, -0.8382109999656677, -1.2415510416030884, -1.42705237865448, 0.6988474130630493, 1.0354478359222412, -0.05876065418124199, -1.8467411994934082, 0.7492293119430542, -0.21867114305496216, -0.9313005805015564, },
	{2.259725570678711, -0.06156335026025772, 1.4218958616256714, 0.7294487953186035, -0.1761052906513214, 0.0673522874712944, -0.1292402744293213, 1.8983434438705444, 0.06994801759719849, 0.06757372617721558, -0.14967012405395508, -0.037341583520174026, -0.8129768967628479, 0.6573474407196045, -0.5571389198303223, 0.3147103190422058, 2.098191499710083, 0.01752098836004734, -3.2578163146972656, 0.974812924861908, 0.1788642704486847, 0.43913528323173523, -1.0163283348083496, -0.11643016338348389, -1.4964587688446045, 1.8340587615966797, 0.19288475811481476, -0.35904547572135925, -2.3372747898101807, -0.09862460196018219, -0.13368815183639526, -1.9266810417175293, },
	{4.3268046379089355, -2.0352749824523926, 3.5878946781158447, -4.139519691467285, -0.12418561428785324, -4.842447280883789, 0.2413492202758789, 2.9426815509796143, -0.16493409872055054, -0.0960736870765686, -0.16234850883483887, -0.10968117415904999, 1.2053059339523315, 1.6031349897384644, 3.210062026977539, 0.6828864812850952, -0.8129012584686279, -0.10011351108551025, -6.959495544433594, -0.32500651478767395, 0.5086090564727783, 1.6217725276947021, -1.406072735786438, 4.824050426483154, -0.8266192078590393, 5.84089994430542, -0.2348170131444931, 2.888866424560547, -3.452982187271118, -3.5851588249206543, 0.22178077697753906, -4.12601375579834, },
};
#endif
