// Generated automatically. Do not edit.
// Dumped from /home/tylee/GoogleDrive/UCI/02_DRG/ISLPED2020/model/test_set_paper/model.h5
#include <stdint.h>

#ifndef WEIGHTS_2_H
#define WEIGHTS_2_GPIO_H

#define WEIGHTS_2_DIM0 32
#define WEIGHTS_2_DIM1 32
static const float weights_2[32][32] = {
	{1.3481091260910034, -0.8528854846954346, -0.7809324264526367, -1.1897845268249512, 0.24550467729568481, 0.16699093580245972, -0.17405593395233154, 0.941020667552948, -0.19577161967754364, -0.5695921778678894, 0.4906613528728485, -0.5805314779281616, -0.286262184381485, 1.3728126287460327, 0.1702589988708496, 0.7641465067863464, 0.6382213830947876, -0.17644810676574707, 0.26710161566734314, 2.011845111846924, 0.6668508052825928, 0.25817546248435974, 0.7522419691085815, 0.05512489005923271, -0.5408665537834167, 2.2694456577301025, 0.8022783994674683, -1.3527944087982178, -0.8923047780990601, -0.2492855191230774, -0.946462869644165, 0.29374951124191284, },
	{-0.7992095351219177, 0.2157806158065796, 0.1185237392783165, -1.3514198064804077, 0.4283254146575928, 0.3348916172981262, 0.030806930735707283, -0.5062475800514221, -0.07155007869005203, 0.7441579699516296, -0.27092480659484863, 0.4221107065677643, -0.4296819865703583, 0.7682886719703674, -0.2748187184333801, -0.7294943332672119, -0.14539380371570587, -0.28633996844291687, -1.3457623720169067, -0.2091970592737198, -0.5047462582588196, -0.47455185651779175, 0.3440377116203308, 0.10085903108119965, 0.24630539119243622, -0.09228602051734924, -0.1653144210577011, -0.8671450018882751, -0.2149387151002884, -0.2862516939640045, -0.5464567542076111, 0.4362069070339203, },
	{0.3238043785095215, 0.008335125632584095, 0.21781738102436066, 0.450805127620697, 0.7669945955276489, 0.006421559490263462, 1.2012243270874023, -0.3118976652622223, 1.8539851903915405, -0.2828221321105957, -0.22393356263637543, -0.46359413862228394, 0.5534635186195374, -0.08327118307352066, 0.0747264102101326, 0.2228548675775528, -0.4218270480632782, -0.28996479511260986, -0.6909189820289612, 0.4245879352092743, -0.24701209366321564, 0.385181188583374, -0.6780944466590881, 0.06768210977315903, 0.928644597530365, -0.006999809294939041, 0.08378405123949051, -0.9190189838409424, 0.2943819463253021, -0.3726726174354553, 0.40313056111335754, 0.4985714554786682, },
	{-0.2828027307987213, 0.06756071746349335, 0.6355882287025452, -0.2983166575431824, 0.15512491762638092, -0.2123502790927887, 1.0009554624557495, 0.4381457269191742, -0.39507079124450684, -0.15056389570236206, -0.19795483350753784, 0.8143563270568848, 0.13942095637321472, -0.2665344178676605, -0.15596795082092285, -0.4067099690437317, -0.7173187136650085, -0.06803815811872482, 0.18178831040859222, -0.6389750242233276, -1.8814510107040405, 0.1839808225631714, -0.46773746609687805, -0.09249359369277954, -0.6299765110015869, -0.5730781555175781, -0.6591355204582214, 0.39985185861587524, 0.34418144822120667, 0.22586247324943542, -0.6884662508964539, -1.0491312742233276, },
	{0.19801244139671326, 0.2453935593366623, -0.21702180802822113, 0.2237299382686615, -0.03990064561367035, 0.207037553191185, 0.2002413272857666, 0.24797093868255615, 0.26407742500305176, -0.051315560936927795, -0.29750728607177734, -0.282314658164978, -0.14311270415782928, 0.24073949456214905, -0.018050163984298706, -0.01214525755494833, 0.09860309213399887, 0.03311380371451378, 0.01888047531247139, -0.11958158016204834, 0.06238985061645508, -0.15517209470272064, -0.14192169904708862, 0.0175744891166687, 0.1074548065662384, -0.09178341925144196, -0.2587292790412903, -0.113335520029068, 0.08798645436763763, 0.06950801610946655, 0.01535150408744812, -0.17616179585456848, },
	{0.02925932966172695, 0.5574743747711182, -0.162947878241539, 0.3909103274345398, 1.0382893085479736, -0.1721479296684265, 0.6260520219802856, -0.37096691131591797, 0.4433862566947937, -0.3774849772453308, -0.06517236679792404, -0.40621018409729004, 1.1633776426315308, -1.2972445487976074, -0.09874214231967926, 1.027814507484436, 0.7864890694618225, -0.1978767216205597, -1.73139226436615, -0.20006506145000458, -0.4954192042350769, -0.4339964687824249, -0.34656256437301636, -0.1912442445755005, -0.5212882161140442, 0.40222030878067017, -0.43638959527015686, -0.02915232628583908, -0.327116996049881, -0.070537269115448, 0.8520837426185608, -0.25086432695388794, },
	{-0.16879384219646454, -0.17120672762393951, 0.008476823568344116, -0.13510002195835114, 0.26034703850746155, -0.05496162176132202, 0.19926491379737854, 0.13936689496040344, 0.22935256361961365, -0.04425311088562012, 0.0002796649932861328, -0.25601211190223694, -0.05639345943927765, -0.07392825186252594, 0.26038047671318054, 0.06150078773498535, -0.0685960054397583, -0.23146241903305054, 0.13649973273277283, -0.07059730589389801, -0.23453092575073242, -0.012793928384780884, 0.29377445578575134, 0.06896370649337769, 0.263365775346756, -0.29655206203460693, -0.01210552453994751, 0.12716764211654663, 0.19484642148017883, 0.1886117160320282, -0.05978280305862427, -0.1497168391942978, },
	{1.7764900922775269, 0.5218709707260132, 0.09524557739496231, -1.677240252494812, -0.288186252117157, -0.1616867333650589, -0.6343274712562561, -0.5603005886077881, -0.14837071299552917, 1.4033724069595337, -1.9254974126815796, 0.1544266790151596, 0.1734246462583542, -0.9586495161056519, -0.2707832455635071, 1.2622708082199097, -1.1062428951263428, 0.13437025249004364, 0.0016269386978819966, -0.38986849784851074, -0.11639685928821564, 1.0103102922439575, -0.06889553368091583, -0.21250838041305542, -0.4593019187450409, 2.154102087020874, 0.19881238043308258, -0.8346136808395386, 0.08881869167089462, -0.5570749640464783, 0.8623605966567993, -0.05489511042833328, },
	{-0.007610678672790527, -0.2607365548610687, -0.06521330773830414, 0.16703414916992188, -0.29549384117126465, -0.01840326189994812, 0.08156073093414307, -0.03225839138031006, -0.2947874963283539, -0.04537191987037659, 0.23428955674171448, 0.15720582008361816, 0.2746104300022125, 0.2606695592403412, 0.0860433280467987, 0.1007404625415802, -0.05045560002326965, -0.20678701996803284, 0.30443283915519714, 0.20682170987129211, 0.01807120442390442, 0.26421263813972473, -0.028713583946228027, 0.07170581817626953, 0.27938857674598694, -0.10517764091491699, 0.1927964687347412, 0.002813011407852173, -0.03700825572013855, -0.16790959239006042, -0.12180255353450775, -0.01854768395423889, },
	{-0.24359408020973206, 0.17063957452774048, -0.19550654292106628, 0.21079501509666443, -0.09349289536476135, 0.10696804523468018, 0.05798828601837158, -0.04744088649749756, -0.025358974933624268, -0.2674468457698822, -0.2338881492614746, 0.09685704112052917, -0.2542881369590759, -0.1790546476840973, -0.08289168775081635, -0.27863386273384094, 0.002400994300842285, -0.2296920120716095, 0.2195049226284027, -0.05214753746986389, 0.23448267579078674, 0.1213623583316803, -0.2775864601135254, 0.20830997824668884, 0.017013847827911377, 0.18786653876304626, 0.0007078945636749268, 0.07778370380401611, 0.08487161993980408, 0.23554328083992004, -0.2467137575149536, -0.2934599816799164, },
	{-0.25354820489883423, 0.20308831334114075, -0.2945869565010071, -0.20660977065563202, -0.027958959341049194, -0.21341203153133392, -0.10379676520824432, -0.10775120556354523, 0.2379404604434967, 0.3019031584262848, 0.30507633090019226, 0.1457694172859192, 0.2511751353740692, 0.24951568245887756, 0.24822506308555603, 0.17333891987800598, -0.19144362211227417, -0.004341691732406616, -0.10525238513946533, 0.1739993691444397, -0.16822093725204468, 0.27024731040000916, -0.23399773240089417, 0.2945615351200104, -0.2719463109970093, -0.08537742495536804, -0.27816951274871826, -0.1684454083442688, 0.14140436053276062, -0.15369872748851776, -0.2281973958015442, -0.28017500042915344, },
	{0.3331628739833832, -0.2034032791852951, -0.13166789710521698, 0.09789092093706131, 0.22388823330402374, 0.1560673862695694, 0.02759728766977787, 0.2850669324398041, 0.1103748008608818, 0.08607957512140274, 0.3615323007106781, 0.20001795887947083, -0.1501825600862503, -0.3159911334514618, 0.20644459128379822, 0.09702535718679428, -0.1403956562280655, 0.2663658559322357, 0.2825466990470886, 0.04227171838283539, -0.15042699873447418, 0.4217926561832428, -0.31980839371681213, 0.035005729645490646, -0.22321055829524994, -0.41228222846984863, -0.10351154953241348, 0.005576254799962044, -0.14428938925266266, 0.17623300850391388, 0.05064688250422478, 0.026507413014769554, },
	{0.3393079340457916, 0.44887492060661316, -0.5102308392524719, 1.6413075923919678, -0.4421388804912567, 0.5200923085212708, -0.25122901797294617, 0.024052251130342484, -0.3654206395149231, -1.1600346565246582, -0.11623828858137131, 0.17087030410766602, -0.6796894073486328, -0.3601599335670471, -0.035762887448072433, -0.10517173260450363, 0.6119537353515625, 0.6007017493247986, -0.31254297494888306, -0.6345905065536499, 0.5191547274589539, -0.28731057047843933, -0.9790971875190735, -0.1586403250694275, 0.13065074384212494, 0.048524994403123856, 0.8641006946563721, -0.3321087062358856, -0.15486565232276917, -0.08911366760730743, 0.06301805377006531, -0.07079814374446869, },
	{-0.919167160987854, 0.2522523105144501, -0.09910520911216736, 0.3752767741680145, -0.10186492651700974, -0.18354420363903046, 0.10391993820667267, -0.22800885140895844, -0.18011878430843353, 0.47139638662338257, -0.4149027466773987, -0.10429544746875763, 0.8985369205474854, -0.04145308956503868, -0.23090583086013794, 0.5614535212516785, 0.3404427170753479, -0.3740249276161194, -0.5742682218551636, 1.200170874595642, 0.37644386291503906, 0.11055231094360352, 0.07701998949050903, 0.08858399838209152, -0.0852707028388977, 0.9896978735923767, -0.14598724246025085, 0.6860533356666565, -0.22082115709781647, -0.2917190194129944, -0.19420485198497772, -0.7102070450782776, },
	{-0.016531867906451225, 0.842176079750061, 0.47776156663894653, 0.07720179855823517, 0.05773567035794258, -0.45522117614746094, -0.647799551486969, 0.45673027634620667, 0.28606778383255005, -0.12674497067928314, 0.4325869083404541, -0.36137935519218445, 0.37218189239501953, -0.628076434135437, -0.06860382109880447, 0.4706011712551117, -0.192373588681221, -0.15447652339935303, 0.0739915519952774, 0.3730500638484955, -0.1572709083557129, -0.04034574329853058, 0.22926661372184753, 0.04502571374177933, -0.5126633048057556, 0.22130092978477478, 1.073831558227539, -1.3233976364135742, -0.4916086792945862, 0.5279790759086609, -0.19175805151462555, -0.08154096454381943, },
	{-0.9540008306503296, 0.34527334570884705, 0.43546804785728455, 0.7370416522026062, -0.8729431629180908, -0.6276443004608154, 0.0042655616998672485, -0.4278053045272827, -0.06752359867095947, 0.9073371887207031, -1.0009856224060059, 0.1186327189207077, 0.6462096571922302, -0.2395266890525818, -0.320972740650177, -1.0193842649459839, -1.2661023139953613, -0.02434721030294895, 0.1804991364479065, -0.41198891401290894, 0.8828708529472351, -0.5003044009208679, -0.678912878036499, -0.07689359784126282, 0.4729769229888916, -0.8326890468597412, -1.0334718227386475, 0.7278858423233032, -0.13639456033706665, 0.42131859064102173, 0.3332393169403076, 1.2331217527389526, },
	{0.798537015914917, -0.36986684799194336, 0.3441302478313446, -0.1532297283411026, 0.6918720602989197, -0.21868778765201569, -0.07367009669542313, 0.2650430500507355, 0.377753883600235, 0.37834975123405457, -0.22981949150562286, -0.7120479345321655, -1.0053659677505493, 1.664475440979004, -0.07620000094175339, -0.27907735109329224, 0.6208694577217102, 0.29268181324005127, -0.12080778181552887, 0.10804011672735214, -0.16185514628887177, -1.549786925315857, -0.03791779652237892, 0.08529464900493622, 0.7802514433860779, -0.2534763514995575, -0.6729428172111511, -0.2815968692302704, 1.7137715816497803, 0.4389804005622864, -0.3170051872730255, 0.39567169547080994, },
	{-0.21660347282886505, 0.16435196995735168, 0.3029264211654663, -0.08247029036283493, -0.01978609338402748, 0.20790988206863403, 0.16071690618991852, 0.22235631942749023, 0.1362667977809906, 0.032510045915842056, 0.13300718367099762, -0.1094091460108757, -0.2319391667842865, -0.08628523349761963, 0.2325347363948822, -0.0477653443813324, -0.1783229410648346, -0.21754908561706543, 0.22032472491264343, 0.28607282042503357, 0.004722300451248884, 0.1973954290151596, -0.30626997351646423, 0.1379789412021637, -0.1921653002500534, 0.26402246952056885, -0.24424304068088531, -0.03276137262582779, -0.22596339881420135, -0.15059728920459747, -0.13883903622627258, 0.11462987214326859, },
	{-0.3668793737888336, 0.8756060600280762, -0.12879931926727295, -0.041586410254240036, 1.0647974014282227, 0.01607990264892578, 0.27080684900283813, 0.6579174995422363, 0.8897483944892883, 0.02565382793545723, -0.3008198142051697, -0.22691982984542847, -0.42847809195518494, 0.5968828201293945, -0.1894034743309021, -0.6258001923561096, -1.280994176864624, 0.049347322434186935, -2.362678289413452, -1.4241360425949097, -0.6043194532394409, -0.9379918575286865, -0.8738269209861755, 0.07399757206439972, 1.1270443201065063, -1.0677809715270996, -0.02549154683947563, -0.3738229274749756, -0.21011008322238922, 0.30480653047561646, 0.43832430243492126, 0.19351539015769958, },
	{0.17044860124588013, 0.25754985213279724, 0.4536776542663574, -0.41023463010787964, -0.32081714272499084, -0.19876660406589508, 0.9917540550231934, -0.03334134817123413, -0.3664053976535797, 0.13309292495250702, -0.46720123291015625, 0.18781350553035736, -0.1489701122045517, 0.620021641254425, -0.23677189648151398, -0.24908702075481415, -1.300031065940857, -0.20812773704528809, -1.389107346534729, 1.1096723079681396, -0.8968345522880554, 0.17071713507175446, -1.0170563459396362, -0.11098723113536835, 1.1248809099197388, -0.37466785311698914, -0.6492860913276672, -0.5036763548851013, 0.4245215952396393, -0.17339691519737244, 0.4894169270992279, -0.08053214102983475, },
	{0.5578460693359375, -1.0372238159179688, 0.581972599029541, -0.30625519156455994, -1.124894618988037, -0.054823800921440125, -0.12639360129833221, -0.19313041865825653, -0.42994678020477295, -1.1830432415008545, -0.22957900166511536, 0.17604701220989227, 0.38673871755599976, -0.6998439431190491, 0.29867979884147644, -0.07274547964334488, -0.18360881507396698, -0.18129701912403107, -0.15471746027469635, -0.8520622253417969, -0.34478849172592163, -0.06029926985502243, 0.4509076774120331, 0.27459990978240967, -0.22629790008068085, 0.0019571660086512566, 0.26514461636543274, 0.30093225836753845, -1.051013708114624, -0.09088708460330963, 0.2793366312980652, 0.49807009100914, },
	{0.0924781784415245, 0.8761425614356995, 0.0934179499745369, -0.794640302658081, -1.1413968801498413, -0.08420763164758682, -2.258134603500366, 0.4001425504684448, 0.853127121925354, 0.10744965076446533, 0.534407913684845, -0.6959178447723389, -0.3121137320995331, -0.22271999716758728, -0.057920508086681366, -0.6482210755348206, 0.33299097418785095, 0.3565678000450134, 0.01789107546210289, 0.3471861183643341, 0.17347081005573273, 0.05240457504987717, 0.31568971276283264, -0.274687260389328, 0.5123113989830017, -0.7625884413719177, -1.4557106494903564, 0.424215704202652, -0.7316423058509827, -0.7129579782485962, 0.37878260016441345, 0.39386770129203796, },
	{-0.6080144047737122, 1.273240327835083, -0.20832045376300812, -0.01035324390977621, -0.5965790152549744, -0.304949015378952, 0.4557739794254303, -0.7736368775367737, 0.3853161931037903, -1.0124895572662354, -2.0080347061157227, -1.1594164371490479, -1.4519871473312378, 0.15230557322502136, 0.112559974193573, -1.2038778066635132, 0.3928707540035248, -0.16444292664527893, -0.8181229829788208, 0.6041943430900574, -0.08863844722509384, -0.11995049566030502, -0.12552233040332794, -0.004455249290913343, 0.359180748462677, 1.0191446542739868, 0.3867376744747162, -0.6725872755050659, -0.4244367182254791, 0.500166118144989, 0.819699764251709, 0.13500374555587769, },
	{-0.1260083019733429, 0.5155411958694458, 0.6068329811096191, 0.33991461992263794, -0.7223312258720398, -0.9160540699958801, -1.7464808225631714, 0.2816578447818756, -0.16280604898929596, -0.11298950016498566, 0.23678246140480042, -0.216467022895813, 0.6771050095558167, 0.15581850707530975, -0.20234720408916473, 0.05364077910780907, -0.3058009147644043, 0.5430424809455872, -0.30157968401908875, 0.33695605397224426, 0.9552210569381714, -0.5590317249298096, 0.473251610994339, -0.26364532113075256, 0.13108283281326294, 0.09086838364601135, 0.06496930867433548, -1.3256745338439941, -0.9129769802093506, 0.38769543170928955, 0.5486472249031067, 0.32613757252693176, },
	{0.22259165346622467, 0.5707870125770569, -0.5775585770606995, -0.1885310411453247, 0.7227429747581482, -0.47354257106781006, -0.008470572531223297, 0.4980776607990265, 0.16108202934265137, -1.1913652420043945, 0.909761905670166, -0.10841313004493713, -0.35093894600868225, -0.6724405288696289, 0.012524989433586597, 0.2989030182361603, 0.8797519207000732, -0.2859339416027069, 0.008641612716019154, -0.7437501549720764, 0.3616974651813507, 0.1632593274116516, 0.6179043650627136, -0.2635359764099121, 0.03521960973739624, 0.9069832563400269, 1.7445534467697144, 1.2755426168441772, -0.07444581389427185, 0.709818959236145, -1.1344867944717407, -0.4205229580402374, },
	{0.9496737122535706, 0.9451749920845032, 0.14819788932800293, 0.3162677586078644, -0.184335857629776, -0.2302553802728653, -0.22926679253578186, -1.3437329530715942, 1.3432254791259766, -0.24248726665973663, -0.8367626667022705, 0.4600304663181305, 0.19712913036346436, -1.9514952898025513, -0.056668784469366074, 0.25444790720939636, -1.975084900856018, -0.6134291887283325, -0.9242219924926758, 0.1698392629623413, 0.5280413031578064, 0.6487780213356018, -1.674613118171692, -0.017875250428915024, -0.10265029966831207, -0.1738038957118988, 0.4962497055530548, 0.809113085269928, -0.8947560787200928, -0.5074822902679443, 0.9390732049942017, 0.2436506450176239, },
	{-0.8664592504501343, -0.40614333748817444, 0.3313126266002655, -0.012122747488319874, 0.6517219543457031, 0.03831528499722481, 0.40825217962265015, -1.2485589981079102, -0.8714497089385986, 1.1957427263259888, -0.6737645864486694, -0.5859361290931702, -1.582395315170288, -0.24019157886505127, 0.11927034705877304, 0.9675520658493042, -1.855480432510376, 0.16374212503433228, -0.14769907295703888, 0.8083619475364685, 0.20916372537612915, 0.18776321411132812, -1.1416001319885254, 0.14430005848407745, 0.22219832241535187, -1.1749837398529053, -1.378036618232727, 0.34007787704467773, -0.9671489596366882, -0.8120731115341187, -0.5054466128349304, 1.135914921760559, },
	{-0.031319305300712585, -0.6421023011207581, -0.29661527276039124, 0.8930251002311707, -1.3449785709381104, 0.8061732053756714, -0.7244740724563599, -0.38689517974853516, -0.08858126401901245, -0.8685212135314941, 0.9904401302337646, 0.19288164377212524, -0.5080006122589111, 0.2601173520088196, 0.06232858821749687, 0.3301195204257965, 0.35865139961242676, 0.18089446425437927, -0.03905768692493439, -0.7604179382324219, 0.7045959234237671, -0.8228240609169006, 0.8203099370002747, -0.1192498430609703, -0.8171709775924683, -0.6365347504615784, -0.1272561401128769, 0.006191011518239975, -0.6612564325332642, -0.9504888653755188, -0.32264548540115356, -0.13008330762386322, },
	{0.7855352163314819, -0.6794235706329346, 0.6693708300590515, -0.2374648153781891, 0.5926662683486938, -0.34209558367729187, 0.9663923978805542, -1.6703797578811646, 1.4907922744750977, 1.5570327043533325, -3.094846487045288, -0.4329834580421448, -0.971001923084259, -0.591187059879303, -0.2931716740131378, -0.3761955499649048, 0.1809016466140747, -0.5652285814285278, 0.24777184426784515, 0.5739579200744629, 0.026023676618933678, 0.029032917693257332, -0.4286721348762512, -0.2001354843378067, 0.7097598314285278, -0.8944054841995239, -2.205294370651245, 1.2908662557601929, -0.6017976403236389, -0.18442417681217194, 0.7082967162132263, 0.5738370418548584, },
	{-0.5485028028488159, 0.26441776752471924, -0.12454284727573395, 0.0007711309008300304, 0.9411986470222473, -0.8633345365524292, 0.6466483473777771, -0.219661146402359, -0.897493839263916, -0.24205568432807922, 0.2868031859397888, -0.07914907485246658, 0.6044886708259583, -0.34791308641433716, -0.2294815182685852, -0.14608946442604065, -0.25688329339027405, -0.38034647703170776, 1.3151888847351074, -0.11065872013568878, -0.8614833950996399, 0.7438325881958008, -0.7835593819618225, 0.0161735936999321, -1.343155860900879, -0.9425612092018127, 0.050012361258268356, 0.6815232634544373, 0.2363618165254593, 0.42184165120124817, -0.8053866624832153, 0.1417793482542038, },
	{-0.13570410013198853, 0.2522970736026764, 0.10314047336578369, -0.05544722080230713, -0.15069110691547394, -0.14983291923999786, 0.17944103479385376, -0.07945409417152405, -0.22079908847808838, -0.14853540062904358, -0.27522584795951843, -0.20810437202453613, -0.25562870502471924, -0.291128933429718, 0.22259816527366638, -0.19698429107666016, 0.17675161361694336, -0.024579763412475586, 0.2893666923046112, -0.19410252571105957, 0.11166977882385254, 0.07557141780853271, -0.014925897121429443, 0.0197792649269104, 0.02229514718055725, 0.21601083874702454, -0.01899757981300354, -0.09811082482337952, 0.015351265668869019, -0.17713662981987, 0.11420100927352905, -0.025362253189086914, },
	{-0.9446614980697632, -1.8120743036270142, 0.39686471223831177, -1.0713424682617188, 1.6595242023468018, 0.623567521572113, -0.2610900402069092, 0.4493984878063202, 0.5438711047172546, -0.49259039759635925, -0.10709112882614136, -0.010594488121569157, -0.37206292152404785, 1.129346489906311, -0.14081710577011108, -0.013836250640451908, 0.9178308248519897, 0.32436779141426086, 0.3725075423717499, 1.4112908840179443, 0.9179525375366211, 0.08680322766304016, 0.530133843421936, 0.03807951882481575, 0.4583143889904022, 1.7316080331802368, 0.3835868239402771, -1.1121400594711304, 0.6493897438049316, 0.21006835997104645, 0.4071851968765259, 0.1844150871038437, },
};
#endif
